tree
version=v4
num_class=1
num_tree_per_iteration=1
label_index=0
max_feature_idx=57
objective=binary sigmoid:1
feature_names=place_encoded track_type dist dist_category condition_encoded weather_encoded class_grade field_size rank_last rank_rolling_3 rank_rolling_5 show_rate_last_5 last_3f_rolling_3 time_diff_rolling_3 weight_horse weight_change race_span_days prize_cumsum label_momentum jockey_encoded jockey_show_rate jockey_win_rate jockey_race_count jockey_lcb95 father_encoded sire_show_rate sire_lcb95 sire_show_rate_turf sire_show_rate_dirt odds_rank weight_zscore age_relative horse_num waku_num age pop win_odds ts_n_snapshots ts_win_first ts_win_last ts_win_min ts_win_max ts_win_std ts_win_drop_pct ts_win_late_drop_pct ts_show_lo_last ts_show_hi_last ts_show_first_mid ts_show_last_mid ts_show_drop_pct ts_implied_prob_last ts_implied_prob_first ts_implied_prob_last_norm ts_pop_rank_change ts_log_win_votes_last ts_log_show_votes_last ts_anomaly_score has_ts_odds
feature_infos=-1:7:1:9:0:4:5:2:8:6:3 -1:2:1:5 [1000:4250] -1:2:1:0:3:4 -1:0:1:2:3 -1:2:3:4:0:1 [0:5] [5:18] [1:18] [0.33333333333333331:18] [0.5:18] [0:1] [12.9:60.799999999999997] [-4.2999999999999998:24.600000000000001] [336:630] [-46:48] [0:903] [0:161700] [-18:17] -1:10:97:48:19:113:118:72:174:110:109:102:127:119:68:123:107:49:138:136:87:63:126:52:0:95:42:124:101:4:51:83:117:91:160:169:100:125:73:43:131:47:132:50:159:26:45:11:25:147:64:18:15:120:80:62:99:130:55:30:58:139:98:3:103:6:108:115:71:121:70:81:144:74:116:17:122:22:129:141:20:93:24:29:143:140:134:23:79:84:145:76:1:85:89:112:78:59:5:94:213:33:40:61:105:232:8:163:86:135:46:133:155:153:69:60:152:53:231:65:146:106:67:90:137:96:66:230:54:82:142:57:196:41:187:37:13:104:35:151:88:39:225:149:38:111:21:34:226:75:92:148:7:31:14:245:36:182:254:171:224:77:258:199:154:32:176:9:243:256:56:157:27:128:150:255:28:158:192:170:203:2:209:183:186:44:179:198:16:202:185:180:228:242:246:161:219:244:175:178:234:259:114:167:191:193:201:165:197:216:227:235:257:12:156:172:207 [0:0.58823529411764708] [0:0.28080229226361031] [0:1762] [0:0.56321564645671018] -1:572:308:555:476:285:454:436:538:457:478:505:423:385:345:549:319:292:375:315:518:381:511:272:309:526:391:488:498:516:485:250:280:336:435:584:548:305:263:358:580:360:427:547:400:546:361:515:428:441:257:426:279:439:372:533:283:479:388:564:468:440:520:377:451:490:561:489:442:246:496:418:569:325:544:405:443:552:532:349:493:282:536:582:344:322:386:480:508:529:509:446:329:408:331:303:424:500:69:556:503:455:7:447:445:507:368:384:409:464:393:260:420:466:334:568:565:539:343:412:463:453:196:390:486:378:251:570:398:450:473:48:270:208:105:425:316:513:563:307:100:522:577:259:299:10:265:416:537:543:417:461:566:462:560:245:327:376:504:557:85:458:317:333:483:551:379:273:438:495:579:110:248:300:482:274:284:287:530:578:581:371:42:87:168:258:178:335:72:161:328:79:144:291:111:165:403:527:294:448:382:414:54:228:271:77:230:347:415:460:133:467:163:456:237:295:574:122:202:189:365:401:517:132:352:394:183:137:177:182:255:323:444:125:184:244:514:541:571:583:542:289:338:342:383:449:452:19:266:497:23:28:33:37:410:27:139:269:170:234:484:96:205:262:506:50:73:80:373:510:519:102:134:142:154:321:524:91:129:199:109:155:188:487:20:278:540:16:60:65:68:116:169:585:66:192:304:313:324:53:55:75:296:312:326:332:353:380:392:472:2:49:61:135:147:247:249:261:359:366:534:14:113:114 [0.040816326530612242:0.58823529411764708] [0.0074538398907413412:0.39101158302074135] [0.041666666666666664:0.58823529411764708] [0.045454545454545456:0.58823529411764708] [0:18] [-3.481205063605965:3.2302386875869233] [-3.2307692307692308:7.6363636363636367] [1:18] [1:8] [2:12] [0:18] [0:999.89999999999998] [0:534] [0:999.89999999999998] [0:999.89999999999998] [0:294.10000000000002] [0:999.89999999999998] [0:335.05008667235217] [-860.89999999999998:0.99839983998399839] [-13.897058823529413:0.83960720130932887] [0:173.69999999999999] [0:588.39999999999998] [0:701.39999999999998] [0:330.09999999999997] [-161.09523809523807:0.99740311626048739] [0:0.90909090909090906] [0:1] [0:0.78862716591253446] [-17:17] [0:17.574636663920653] [0:17.218379841219736] [-2.1999999999999997:0.80465116279069759] none
tree_sizes=2222

Tree=0
num_leaves=17
num_cat=5
split_feature=35 50 50 36 24 19 36 19 24 36 36 26 19 10 26 12
split_gain=553906 532480 72285 48348.9 25930.8 27025.1 14209.8 20925.9 17018.2 8716.33 6738.23 6361.34 5964.5 3117.55 1918.91 1213.64
threshold=4.5000000000000009 0.028208800827564259 0.0092893656825893227 19.650000000000002 0 1 64.950000000000017 2 3 12.550000000000002 24.250000000000004 0.13199228084771403 4 2.6761904761904769 0.14471189331468526 13.641666666666671
decision_type=2 2 2 2 9 9 2 9 9 2 2 2 9 2 2 2
left_child=-1 2 4 9 5 -2 8 -8 -4 15 13 -12 -6 -5 -11 -3
right_child=1 3 6 10 12 -7 7 -9 -10 14 11 -13 -14 -15 -16 -17
leaf_value=-4.0629802868271385 -2.3569011176048824 -2.2316597322097689 -4.0496090118581964 -3.3584466406302664 -3.4413053154631728 -3.9126499390884382 -2.5005020184553288 -3.5765569592631317 -2.5164995289922687 -1.8553986767087922 -2.8927880031149149 -2.1336859882903916 -4.0610363506104168 -1.8294537253736332 -1.5878070714905155 -1.346555976954277
leaf_weight=592.79849536158144 76.857713557779789 5.0364664867520323 33.356009136885405 4.3618309758603564 50.285779366269708 75.653384104371071 106.49029183760285 174.52364254184067 449.72215561755002 98.903922580182552 39.417510200291872 363.42215580679476 287.76148240640759 293.26720620691776 685.81899202428758 760.76031230762601
leaf_count=33731 1820 127 1898 195 2223 4092 2921 8388 13302 1851 1445 8551 16374 5357 9661 7542
internal_value=-2.45875 -2.18748 -3.12423 -1.66536 -3.66178 -3.07544 -2.77911 -3.09998 -2.59247 -1.48859 -2.05665 -2.20796 -3.9553 -1.85185 -1.62153 -1.35237
internal_weight=4098.44 3505.64 1254.65 2250.99 490.558 152.511 764.092 281.014 483.078 1550.52 700.469 402.84 338.047 297.629 784.723 765.797
internal_count=119478 85747 51018 34729 24509 5912 26509 11309 15200 19181 15548 9996 18597 5552 11512 7669
cat_boundaries=0 18 23 31 49 54
cat_threshold=128 0 0 0 0 0 0 6291456 671088832 271581202 65536 8388608 0 654311558 64 65536 24 335612180 1079771139 201990144 269681984 1342249018 528648 604241920 458752 1241530400 697501706 216130 8 0 320 0 0 0 0 0 0 0 0 16400 16 16777216 545259520 66052 2726297856 2147549320 403709984 17825792 17829888 33554432 74752 524417 201326596 65536
is_linear=0
shrinkage=1


end of trees

feature_importances:
win_odds=4
jockey_encoded=3
father_encoded=2
sire_lcb95=2
ts_implied_prob_last=2
rank_rolling_5=1
last_3f_rolling_3=1
pop=1

parameters:
[boosting: gbdt]
[objective: binary]
[metric: binary_logloss]
[tree_learner: serial]
[device_type: cpu]
[data_sample_strategy: bagging]
[data: ]
[valid: ]
[num_iterations: 1]
[learning_rate: 0.056745]
[num_leaves: 42]
[num_threads: 0]
[seed: 17]
[deterministic: 0]
[force_col_wise: 0]
[force_row_wise: 0]
[histogram_pool_size: -1]
[max_depth: 5]
[min_data_in_leaf: 31]
[min_sum_hessian_in_leaf: 0.001]
[bagging_fraction: 0.944609]
[pos_bagging_fraction: 1]
[neg_bagging_fraction: 1]
[bagging_freq: 0]
[bagging_seed: 26602]
[bagging_by_query: 0]
[feature_fraction: 0.839211]
[feature_fraction_bynode: 1]
[feature_fraction_seed: 18297]
[extra_trees: 0]
[extra_seed: 13015]
[early_stopping_round: 0]
[early_stopping_min_delta: 0]
[first_metric_only: 0]
[max_delta_step: 0]
[lambda_l1: 0.0367233]
[lambda_l2: 0.000110636]
[linear_lambda: 0]
[min_gain_to_split: 0]
[drop_rate: 0.1]
[max_drop: 50]
[skip_drop: 0.5]
[xgboost_dart_mode: 0]
[uniform_drop: 0]
[drop_seed: 30017]
[top_rate: 0.2]
[other_rate: 0.1]
[min_data_per_group: 100]
[max_cat_threshold: 32]
[cat_l2: 10]
[cat_smooth: 10]
[max_cat_to_onehot: 4]
[top_k: 20]
[monotone_constraints: ]
[monotone_constraints_method: basic]
[monotone_penalty: 0]
[feature_contri: ]
[forcedsplits_filename: ]
[refit_decay_rate: 0.9]
[cegb_tradeoff: 1]
[cegb_penalty_split: 0]
[cegb_penalty_feature_lazy: ]
[cegb_penalty_feature_coupled: ]
[path_smooth: 0]
[interaction_constraints: ]
[verbosity: -1]
[saved_feature_importance_type: 0]
[use_quantized_grad: 0]
[num_grad_quant_bins: 4]
[quant_train_renew_leaf: 0]
[stochastic_rounding: 1]
[linear_tree: 0]
[max_bin: 255]
[max_bin_by_feature: ]
[min_data_in_bin: 3]
[bin_construct_sample_cnt: 200000]
[data_random_seed: 94]
[is_enable_sparse: 1]
[enable_bundle: 1]
[use_missing: 1]
[zero_as_missing: 0]
[feature_pre_filter: 1]
[pre_partition: 0]
[two_round: 0]
[header: 0]
[label_column: ]
[weight_column: ]
[group_column: ]
[ignore_column: ]
[categorical_feature: 0,1,3,4,5,19,24]
[forcedbins_filename: ]
[precise_float_parser: 0]
[parser_config_file: ]
[objective_seed: 20363]
[num_class: 1]
[is_unbalance: 0]
[scale_pos_weight: 54.1938]
[sigmoid: 1]
[boost_from_average: 1]
[reg_sqrt: 0]
[alpha: 0.9]
[fair_c: 1]
[poisson_max_delta_step: 0.7]
[tweedie_variance_power: 1.5]
[lambdarank_truncation_level: 30]
[lambdarank_norm: 1]
[label_gain: ]
[lambdarank_position_bias_regularization: 0]
[eval_at: ]
[multi_error_top_k: 1]
[auc_mu_weights: ]
[num_machines: 1]
[local_listen_port: 12400]
[time_out: 120]
[machine_list_filename: ]
[machines: ]
[gpu_platform_id: -1]
[gpu_device_id: -1]
[gpu_use_dp: 0]
[num_gpu: 1]

end of parameters

pandas_categorical:[]
